<?xml version="1.0"?>
<opencv_storage>
<stage6>
  <maxWeakCount>32</maxWeakCount>
  <stageThreshold>-1.4081224203109741e+00</stageThreshold>
  <weakClassifiers>
    <_>
      <internalNodes>
        0 -1 123923 -8.1590572372078896e-03</internalNodes>
      <leafValues>
        2.3486682772636414e-01 -5.7825678586959839e-01</leafValues></_>
    <_>
      <internalNodes>
        0 -1 139500 -2.5156609714031219e-02</internalNodes>
      <leafValues>
        3.3926394581794739e-01 -3.7170615792274475e-01</leafValues></_>
    <_>
      <internalNodes>
        0 -1 27057 -1.9258853048086166e-02</internalNodes>
      <leafValues>
        3.8800057768821716e-01 -2.5200793147087097e-01</leafValues></_>
    <_>
      <internalNodes>
        0 -1 89742 -3.8449540734291077e-03</internalNodes>
      <leafValues>
        3.2202851772308350e-01 -2.6782521605491638e-01</leafValues></_>
    <_>
      <internalNodes>
        0 -1 145723 -3.4367972984910011e-03</internalNodes>
      <leafValues>
        2.9951629042625427e-01 -2.4307969212532043e-01</leafValues></_>
    <_>
      <internalNodes>
        0 -1 49718 -9.6642803400754929e-03</internalNodes>
      <leafValues>
        -1.7866998910903931e-01 3.8240262866020203e-01</leafValues></_>
    <_>
      <internalNodes>
        0 -1 133607 -3.4142576623708010e-04</internalNodes>
      <leafValues>
        2.8787651658058167e-01 -2.6675030589103699e-01</leafValues></_>
    <_>
      <internalNodes>
        0 -1 86042 2.2097970359027386e-03</internalNodes>
      <leafValues>
        -2.0700687170028687e-01 3.5674735903739929e-01</leafValues></_>
    <_>
      <internalNodes>
        0 -1 28662 1.6783559694886208e-03</internalNodes>
      <leafValues>
        -1.5223361551761627e-01 4.2423689365386963e-01</leafValues></_>
    <_>
      <internalNodes>
        0 -1 115386 1.6737654805183411e-01</internalNodes>
      <leafValues>
        -1.4383494853973389e-01 6.2250936031341553e-01</leafValues></_>
    <_>
      <internalNodes>
        0 -1 127486 -1.3403712073341012e-03</internalNodes>
      <leafValues>
        4.6650424599647522e-01 -1.3563668727874756e-01</leafValues></_>
    <_>
      <internalNodes>
        0 -1 127461 -8.6602743249386549e-04</internalNodes>
      <leafValues>
        5.1782333850860596e-01 -1.2678042054176331e-01</leafValues></_>
    <_>
      <internalNodes>
        0 -1 159767 -3.0856877565383911e-03</internalNodes>
      <leafValues>
        4.0852949023246765e-01 -1.6707794368267059e-01</leafValues></_>
    <_>
      <internalNodes>
        0 -1 120741 -2.5775294750928879e-02</internalNodes>
      <leafValues>
        -7.1702969074249268e-01 8.8342823088169098e-02</leafValues></_>
    <_>
      <internalNodes>
        0 -1 7968 1.0408694297075272e-01</internalNodes>
      <leafValues>
        8.6671955883502960e-02 -6.1557722091674805e-01</leafValues></_>
    <_>
      <internalNodes>
        0 -1 58905 4.9481692258268595e-04</internalNodes>
      <leafValues>
        -2.5663712620735168e-01 2.2601430118083954e-01</leafValues></_>
    <_>
      <internalNodes>
        0 -1 161538 5.1681818440556526e-03</internalNodes>
      <leafValues>
        -7.5821965932846069e-02 7.2453957796096802e-01</leafValues></_>
    <_>
      <internalNodes>
        0 -1 29023 6.3066848088055849e-04</internalNodes>
      <leafValues>
        -4.2593735456466675e-01 1.4986714720726013e-01</leafValues></_>
    <_>
      <internalNodes>
        0 -1 54113 6.5780267119407654e-02</internalNodes>
      <leafValues>
        1.2393578886985779e-01 -5.7739347219467163e-01</leafValues></_>
    <_>
      <internalNodes>
        0 -1 110196 -6.2371622771024704e-03</internalNodes>
      <leafValues>
        4.4468614459037781e-01 -1.5489587187767029e-01</leafValues></_>
    <_>
      <internalNodes>
        0 -1 104151 6.8239017855376005e-04</internalNodes>
      <leafValues>
        -2.5015217065811157e-01 2.7002838253974915e-01</leafValues></_>
    <_>
      <internalNodes>
        0 -1 121117 1.2133723124861717e-02</internalNodes>
      <leafValues>
        -1.4205372333526611e-01 4.6578001976013184e-01</leafValues></_>
    <_>
      <internalNodes>
        0 -1 102286 4.7807618975639343e-03</internalNodes>
      <leafValues>
        -1.9411332905292511e-01 3.1468141078948975e-01</leafValues></_>
    <_>
      <internalNodes>
        0 -1 78278 -1.6308378428220749e-02</internalNodes>
      <leafValues>
        -6.9832193851470947e-01 8.9782550930976868e-02</leafValues></_>
    <_>
      <internalNodes>
        0 -1 5094 2.4073146283626556e-02</internalNodes>
      <leafValues>
        -1.4786408841609955e-01 4.4721388816833496e-01</leafValues></_>
    <_>
      <internalNodes>
        0 -1 113553 6.6490411758422852e-02</internalNodes>
      <leafValues>
        7.4547640979290009e-02 -9.1769880056381226e-01</leafValues></_>
    <_>
      <internalNodes>
        0 -1 67177 -2.0611640065908432e-02</internalNodes>
      <leafValues>
        5.9964400529861450e-01 -1.1590796709060669e-01</leafValues></_>
    <_>
      <internalNodes>
        0 -1 116617 -2.4496834725141525e-02</internalNodes>
      <leafValues>
        -9.6199065446853638e-01 7.3395892977714539e-02</leafValues></_>
    <_>
      <internalNodes>
        0 -1 120800 1.9082843791693449e-03</internalNodes>
      <leafValues>
        -2.2357288002967834e-01 2.5948491692543030e-01</leafValues></_>
    <_>
      <internalNodes>
        0 -1 117064 2.7324478141963482e-03</internalNodes>
      <leafValues>
        -1.4968526363372803e-01 4.0975153446197510e-01</leafValues></_>
    <_>
      <internalNodes>
        0 -1 113060 -5.7950444519519806e-02</internalNodes>
      <leafValues>
        -8.0819463729858398e-01 8.8365361094474792e-02</leafValues></_>
    <_>
      <internalNodes>
        0 -1 25605 1.0585675772745162e-04</internalNodes>
      <leafValues>
        1.5041674673557281e-01 -3.5251259803771973e-01</leafValues></_></weakClassifiers></stage6>
</opencv_storage>
