<?xml version="1.0"?>
<opencv_storage>
<stage13>
  <maxWeakCount>46</maxWeakCount>
  <stageThreshold>-1.1543459892272949e+00</stageThreshold>
  <weakClassifiers>
    <_>
      <internalNodes>
        0 -1 123480 -1.0639375075697899e-02</internalNodes>
      <leafValues>
        5.4298643022775650e-02 -5.2408480644226074e-01</leafValues></_>
    <_>
      <internalNodes>
        0 -1 67103 7.7095022425055504e-03</internalNodes>
      <leafValues>
        -2.3812541365623474e-01 3.0184954404830933e-01</leafValues></_>
    <_>
      <internalNodes>
        0 -1 91713 -2.6930063031613827e-03</internalNodes>
      <leafValues>
        -3.2579755783081055e-01 1.6580595076084137e-01</leafValues></_>
    <_>
      <internalNodes>
        0 -1 86804 -1.5803879359737039e-03</internalNodes>
      <leafValues>
        2.0201903581619263e-01 -2.0267412066459656e-01</leafValues></_>
    <_>
      <internalNodes>
        0 -1 48816 -5.3536985069513321e-03</internalNodes>
      <leafValues>
        -7.8413701057434082e-01 8.8201723992824554e-02</leafValues></_>
    <_>
      <internalNodes>
        0 -1 148219 5.3674569353461266e-03</internalNodes>
      <leafValues>
        -1.7559045553207397e-01 2.5297656655311584e-01</leafValues></_>
    <_>
      <internalNodes>
        0 -1 37995 3.5408500116318464e-04</internalNodes>
      <leafValues>
        -2.7724069356918335e-01 1.5912362933158875e-01</leafValues></_>
    <_>
      <internalNodes>
        0 -1 148184 1.5181240160018206e-03</internalNodes>
      <leafValues>
        -1.5089011192321777e-01 3.2054570317268372e-01</leafValues></_>
    <_>
      <internalNodes>
        0 -1 159664 7.8710296656936407e-04</internalNodes>
      <leafValues>
        1.3229136168956757e-01 -4.0253472328186035e-01</leafValues></_>
    <_>
      <internalNodes>
        0 -1 113802 -2.0638576243072748e-03</internalNodes>
      <leafValues>
        3.4771698713302612e-01 -1.4051374793052673e-01</leafValues></_>
    <_>
      <internalNodes>
        0 -1 97933 -2.4667093530297279e-03</internalNodes>
      <leafValues>
        4.2119416594505310e-01 -1.0324212908744812e-01</leafValues></_>
    <_>
      <internalNodes>
        0 -1 60483 6.0598039999604225e-03</internalNodes>
      <leafValues>
        7.1298867464065552e-02 -5.2329665422439575e-01</leafValues></_>
    <_>
      <internalNodes>
        0 -1 13297 7.7274476643651724e-04</internalNodes>
      <leafValues>
        7.1759231388568878e-02 -5.7646799087524414e-01</leafValues></_>
    <_>
      <internalNodes>
        0 -1 20423 2.8414246626198292e-03</internalNodes>
      <leafValues>
        -1.2416990101337433e-01 3.5457435250282288e-01</leafValues></_>
    <_>
      <internalNodes>
        0 -1 159358 5.6235778174595907e-05</internalNodes>
      <leafValues>
        1.3348571956157684e-01 -2.8432768583297729e-01</leafValues></_>
    <_>
      <internalNodes>
        0 -1 98043 4.2297942563891411e-03</internalNodes>
      <leafValues>
        -1.0493868589401245e-01 3.8278329372406006e-01</leafValues></_>
    <_>
      <internalNodes>
        0 -1 69263 2.1277926862239838e-04</internalNodes>
      <leafValues>
        -2.1601238846778870e-01 1.8185663223266602e-01</leafValues></_>
    <_>
      <internalNodes>
        0 -1 27983 -2.8265517204999924e-02</internalNodes>
      <leafValues>
        6.6265624761581421e-01 -6.7501492798328400e-02</leafValues></_>
    <_>
      <internalNodes>
        0 -1 38794 9.3999795615673065e-02</internalNodes>
      <leafValues>
        -1.1888059228658676e-01 3.5975888371467590e-01</leafValues></_>
    <_>
      <internalNodes>
        0 -1 99423 -1.0935043916106224e-02</internalNodes>
      <leafValues>
        5.0933790206909180e-01 -7.9579882323741913e-02</leafValues></_>
    <_>
      <internalNodes>
        0 -1 245 1.6023512929677963e-02</internalNodes>
      <leafValues>
        -9.6757613122463226e-02 3.9219382405281067e-01</leafValues></_>
    <_>
      <internalNodes>
        0 -1 111080 1.3752657920122147e-02</internalNodes>
      <leafValues>
        -7.7975988388061523e-02 5.7248741388320923e-01</leafValues></_>
    <_>
      <internalNodes>
        0 -1 80834 -1.0118198581039906e-02</internalNodes>
      <leafValues>
        -7.6518380641937256e-01 6.0553453862667084e-02</leafValues></_>
    <_>
      <internalNodes>
        0 -1 160933 5.7204393669962883e-05</internalNodes>
      <leafValues>
        1.5834735333919525e-01 -2.4526745080947876e-01</leafValues></_>
    <_>
      <internalNodes>
        0 -1 23628 3.4301078412681818e-03</internalNodes>
      <leafValues>
        -5.7707339525222778e-02 6.8224686384201050e-01</leafValues></_>
    <_>
      <internalNodes>
        0 -1 66746 1.3308972120285034e-02</internalNodes>
      <leafValues>
        5.4583933204412460e-02 -8.6793833971023560e-01</leafValues></_>
    <_>
      <internalNodes>
        0 -1 145044 -3.8219587877392769e-03</internalNodes>
      <leafValues>
        -6.7755711078643799e-01 4.7147512435913086e-02</leafValues></_>
    <_>
      <internalNodes>
        0 -1 89799 -8.9673167094588280e-03</internalNodes>
      <leafValues>
        3.1709870696067810e-01 -1.2714311480522156e-01</leafValues></_>
    <_>
      <internalNodes>
        0 -1 133381 -1.8000323325395584e-02</internalNodes>
      <leafValues>
        -4.9794790148735046e-01 7.8158669173717499e-02</leafValues></_>
    <_>
      <internalNodes>
        0 -1 126568 -3.7054724991321564e-02</internalNodes>
      <leafValues>
        -6.7299902439117432e-01 5.0801169127225876e-02</leafValues></_>
    <_>
      <internalNodes>
        0 -1 114004 -1.4370033517479897e-02</internalNodes>
      <leafValues>
        -8.9731350541114807e-02 5.0371092557907104e-01</leafValues></_>
    <_>
      <internalNodes>
        0 -1 9690 -1.1091200634837151e-02</internalNodes>
      <leafValues>
        5.3360626101493835e-02 -8.5637539625167847e-01</leafValues></_>
    <_>
      <internalNodes>
        0 -1 101699 1.0953766759485006e-03</internalNodes>
      <leafValues>
        -1.5780813992023468e-01 2.6157575845718384e-01</leafValues></_>
    <_>
      <internalNodes>
        0 -1 75211 2.7060385327786207e-03</internalNodes>
      <leafValues>
        -8.0565407872200012e-02 4.5568811893463135e-01</leafValues></_>
    <_>
      <internalNodes>
        0 -1 119341 -7.5383472722023726e-04</internalNodes>
      <leafValues>
        -3.7275788187980652e-01 1.1570917814970016e-01</leafValues></_>
    <_>
      <internalNodes>
        0 -1 139084 8.8008190505206585e-04</internalNodes>
      <leafValues>
        -1.5100154280662537e-01 2.8068175911903381e-01</leafValues></_>
    <_>
      <internalNodes>
        0 -1 60731 -2.2167773917317390e-02</internalNodes>
      <leafValues>
        2.1328568458557129e-01 -1.9397073984146118e-01</leafValues></_>
    <_>
      <internalNodes>
        0 -1 99952 1.3550263829529285e-03</internalNodes>
      <leafValues>
        7.2112247347831726e-02 -5.3863573074340820e-01</leafValues></_>
    <_>
      <internalNodes>
        0 -1 142927 -1.0849049314856529e-02</internalNodes>
      <leafValues>
        3.3466604351997375e-01 -1.3813610374927521e-01</leafValues></_>
    <_>
      <internalNodes>
        0 -1 46436 -5.2362475544214249e-03</internalNodes>
      <leafValues>
        -4.3913668394088745e-01 9.5213368535041809e-02</leafValues></_>
    <_>
      <internalNodes>
        0 -1 85394 1.0970862582325935e-02</internalNodes>
      <leafValues>
        -1.0520976036787033e-01 4.5680439472198486e-01</leafValues></_>
    <_>
      <internalNodes>
        0 -1 97457 1.4932977501302958e-03</internalNodes>
      <leafValues>
        -1.3325303792953491e-01 3.1670784950256348e-01</leafValues></_>
    <_>
      <internalNodes>
        0 -1 138124 -6.0914014466106892e-04</internalNodes>
      <leafValues>
        1.5660642087459564e-01 -2.7041712403297424e-01</leafValues></_>
    <_>
      <internalNodes>
        0 -1 148870 -1.5461366856470704e-03</internalNodes>
      <leafValues>
        -6.5530812740325928e-01 6.5249860286712646e-02</leafValues></_>
    <_>
      <internalNodes>
        0 -1 37570 6.9343827664852142e-02</internalNodes>
      <leafValues>
        -1.2118064612150192e-01 3.7146756052970886e-01</leafValues></_>
    <_>
      <internalNodes>
        0 -1 160550 2.9171509668231010e-03</internalNodes>
      <leafValues>
        -9.4108223915100098e-02 4.0902930498123169e-01</leafValues></_></weakClassifiers></stage13>
</opencv_storage>
